tree
version=v4
num_class=1
num_tree_per_iteration=1
label_index=0
max_feature_idx=32
objective=binary sigmoid:1
feature_names=ma_7 ma_7_ratio ma_14 ma_14_ratio ma_20 ma_20_ratio ma_30 ma_30_ratio ma_60 ma_60_ratio ma_90 ma_90_ratio macd macd_signal macd_hist rsi_14 roc_12 bb_upper bb_lower bb_width bb_pos atr_14 atr_ratio vol_ma_20 vol_ratio typical_price vwap_roll price_vs_vwap ret_lag_1 ret_lag_3 ret_lag_6 ret_lag_12 ret_lag_24
feature_infos=[0.075338571428571435:0.22476285714285713] [0.88173020170696736:1.0768871512256308] [0.075668571428571432:0.22368357142857143] [0.85354240731335718:1.1270509212552435] [0.075848499999999999:0.22345500000000001] [0.84502085055166742:1.1519886026356403] [0.076170000000000002:0.22258266666666668] [0.84176103043988182:1.1738574995644853] [0.076847166666666661:0.22100066666666668] [0.8219672191280849:1.201128936423054] [0.077047666666666667:0.22123544444444443] [0.78164105020102026:1.2093029954236123] [-0.0065397024102647194:0.0050698573484673076] [-0.0058010875920155597:0.0041619277123552522] [-0.0022958794678250649:0.0023590643881228014] [0.3333333333332007:100] [-0.17621469272716139:0.21277872212778726] [0.076804176117768144:0.22809379631345225] [0.074337369367769149:0.22150997713275936] [0.0014939189931770709:0.29646930309844627] [-0.53835673341956614:1.5417542297287512] [5.4285714285714058e-05:0.0073307142857142876] [0.00063950406747633696:0.053681367005905256] [1589976.75:478829023.30000001] [0.071153552176054582:16.17627372212565] [0.074593333333333331:0.22716666666666666] [0.075522077303980834:0.22374053065432395] [0.89091201994590941:1.0901691043926831] [-0.10853955635337864:0.066344365935292027] [-0.13575865128660158:0.10370113747906906] [-0.16883036597428291:0.16022575090874303] [-0.17621469272716139:0.21277872212778726] [-0.20354036133584774:0.22169621273166795]
tree_sizes=3381

Tree=0
num_leaves=31
num_cat=0
split_feature=22 22 22 5 22 22 12 20 25 14 27 10 22 10 26 6 23 23 2 8 2 13 8 10 22 8 13 6 13 12
split_gain=4611.11 887.365 540.314 180.854 136.742 118.744 95.4541 73.0223 68.1197 67.8769 66.3217 91.6408 64.8176 63.0977 83.4339 100.393 61.6183 105.168 59.8248 117.969 105.387 73.5104 69.5562 72.0193 73.9053 66.0564 82.8724 58.7544 54.8071 54.5102
threshold=0.0052349407262712476 0.0030060913176835715 0.0070788317439945637 0.98325879208441502 0.0041303836115260508 0.013599859863749767 0.00030569542685072315 -0.14885612788685107 0.07745500000000001 -0.00037890140187190046 1.0318947904753977 0.15220572222222226 0.00248134391341615 0.078309500000000018 0.09453143496640945 0.095515166666666693 41457086.350000001 56702371.525000006 0.1308064285714286 0.12032433333333335 0.14260928571428574 6.4075189395805963e-05 0.15316516666666671 0.17098855555555559 0.0081592334286721743 0.14954166666666668 -4.213235467433673e-05 0.086561333333333351 0.00066549576383119686 0.0011558157963604961
decision_type=2 2 2 2 2 2 2 2 2 2 2 2 2 2 2 2 2 2 2 2 2 2 2 2 2 2 2 2 2 2
left_child=1 12 7 -4 8 6 13 -2 -3 -6 29 28 -1 -5 -15 -16 -17 18 19 21 -20 -18 25 -24 -25 26 -22 -10 -12 -8
right_child=2 4 3 5 9 -7 10 -9 27 -11 11 -13 -14 14 15 16 17 -19 20 -21 22 -23 23 24 -26 -27 -28 -29 -30 -31
leaf_value=-2.2579556597555572 -2.0254611452917621 -2.098301186551105 -2.0454608075906102 -1.8298378561096327 -1.8952074250340167 -2.0571991809189623 -2.172290515968148 -2.1691031644914163 -2.2500341935378954 -2.1973997007533677 -1.7281518600050352 -2.2072546125409818 -2.2419850365660188 -2.1937703600251934 -1.809781283826015 -2.1421560311882062 -2.1395261888889019 -2.121862889015067 -2.2193996309183834 -1.8677396350148285 -2.2020441771280641 -1.7918417941723346 -2.1288119943560853 -2.0786702330569158 -1.867270768044373 -1.8691566809824676 -1.809781283826015 -2.2192620546572543 -2.0193804231470764 -2.1193403081145665
leaf_weight=2346.347261056304 8.9568778201937658 10.996562868356703 103.49184570461512 2.0396850481629363 1.8623211309313763 73.872071526944637 150.31591985374689 726.12787714600563 178.16205485910177 842.12387901544571 2.3944128826260549 4.7001438066363335 871.21156144142151 26.515905626118183 2.926504634320735 77.951441623270512 10.641835033893587 117.94700495898724 10.641835033893583 11.528654620051382 4.345415972173214 1.7736391723155964 28.46690871566534 11.173926785588266 6.56246493756771 8.9568778201937658 1.9510030895471562 1199.3348083198071 4.9661896824836731 71.8323864787817
leaf_count=26458 101 124 1167 23 21 833 1695 8188 2009 9496 27 53 9824 299 33 879 120 1330 120 130 49 20 321 126 74 101 22 13524 56 810
internal_value=-2.21563 -2.23683 -2.13704 -2.10673 -2.2126 -2.11677 -2.12466 -2.16735 -2.22225 -2.19673 -2.14897 -2.03478 -2.25363 -2.10706 -2.10882 -2.10118 -2.1041 -2.09023 -2.05139 -1.98291 -2.07413 -2.08986 -2.04897 -2.07954 -2.00045 -1.9564 -2.0805 -2.22324 -1.92464 -2.15517
internal_weight=6920.12 5450.04 1470.08 734.996 2232.48 631.504 557.632 735.085 1388.49 843.986 234.209 12.0607 3217.56 323.423 321.383 294.868 291.941 213.99 96.0426 23.9441 72.0984 12.4155 61.4566 46.2033 17.7364 15.2533 6.29642 1377.5 7.3606 222.148
internal_count=78033 61456 16577 8288 25174 7121 6288 8289 15657 9517 2641 136 36282 3647 3624 3325 3292 2413 1083 270 813 140 693 521 200 172 71 15533 83 2505
is_linear=0
shrinkage=1


end of trees

feature_importances:
atr_ratio=7
ma_60=3
ma_90=3
macd_signal=3
ma_14=2
ma_30=2
macd=2
vol_ma_20=2
ma_20_ratio=1
macd_hist=1
bb_pos=1
typical_price=1
vwap_roll=1
price_vs_vwap=1

parameters:
[boosting: gbdt]
[objective: binary]
[metric: auc]
[tree_learner: serial]
[device_type: cpu]
[data_sample_strategy: bagging]
[data: ]
[valid: ]
[num_iterations: 100]
[learning_rate: 0.05]
[num_leaves: 31]
[num_threads: 0]
[seed: 0]
[deterministic: 0]
[force_col_wise: 0]
[force_row_wise: 0]
[histogram_pool_size: -1]
[max_depth: -1]
[min_data_in_leaf: 20]
[min_sum_hessian_in_leaf: 0.001]
[bagging_fraction: 1]
[pos_bagging_fraction: 1]
[neg_bagging_fraction: 1]
[bagging_freq: 0]
[bagging_seed: 3]
[bagging_by_query: 0]
[feature_fraction: 0.9]
[feature_fraction_bynode: 1]
[feature_fraction_seed: 2]
[extra_trees: 0]
[extra_seed: 6]
[early_stopping_round: 0]
[early_stopping_min_delta: 0]
[first_metric_only: 0]
[max_delta_step: 0]
[lambda_l1: 0]
[lambda_l2: 0]
[linear_lambda: 0]
[min_gain_to_split: 0]
[drop_rate: 0.1]
[max_drop: 50]
[skip_drop: 0.5]
[xgboost_dart_mode: 0]
[uniform_drop: 0]
[drop_seed: 4]
[top_rate: 0.2]
[other_rate: 0.1]
[min_data_per_group: 100]
[max_cat_threshold: 32]
[cat_l2: 10]
[cat_smooth: 10]
[max_cat_to_onehot: 4]
[top_k: 20]
[monotone_constraints: ]
[monotone_constraints_method: basic]
[monotone_penalty: 0]
[feature_contri: ]
[forcedsplits_filename: ]
[refit_decay_rate: 0.9]
[cegb_tradeoff: 1]
[cegb_penalty_split: 0]
[cegb_penalty_feature_lazy: ]
[cegb_penalty_feature_coupled: ]
[path_smooth: 0]
[interaction_constraints: ]
[verbosity: 1]
[saved_feature_importance_type: 0]
[use_quantized_grad: 0]
[num_grad_quant_bins: 4]
[quant_train_renew_leaf: 0]
[stochastic_rounding: 1]
[linear_tree: 0]
[max_bin: 255]
[max_bin_by_feature: ]
[min_data_in_bin: 3]
[bin_construct_sample_cnt: 200000]
[data_random_seed: 1]
[is_enable_sparse: 1]
[enable_bundle: 1]
[use_missing: 1]
[zero_as_missing: 0]
[feature_pre_filter: 1]
[pre_partition: 0]
[two_round: 0]
[header: 0]
[label_column: ]
[weight_column: ]
[group_column: ]
[ignore_column: ]
[categorical_feature: ]
[forcedbins_filename: ]
[precise_float_parser: 0]
[parser_config_file: ]
[objective_seed: 5]
[num_class: 1]
[is_unbalance: 0]
[scale_pos_weight: 1]
[sigmoid: 1]
[boost_from_average: 1]
[reg_sqrt: 0]
[alpha: 0.9]
[fair_c: 1]
[poisson_max_delta_step: 0.7]
[tweedie_variance_power: 1.5]
[lambdarank_truncation_level: 30]
[lambdarank_norm: 1]
[label_gain: ]
[lambdarank_position_bias_regularization: 0]
[eval_at: ]
[multi_error_top_k: 1]
[auc_mu_weights: ]
[num_machines: 1]
[local_listen_port: 12400]
[time_out: 120]
[machine_list_filename: ]
[machines: ]
[gpu_platform_id: -1]
[gpu_device_id: -1]
[gpu_use_dp: 0]
[num_gpu: 1]

end of parameters

pandas_categorical:[]
